<?xml version="1.0"?>
<opencv_storage>
<stage7>
  <maxWeakCount>38</maxWeakCount>
  <stageThreshold>-8.5731667280197144e-01</stageThreshold>
  <weakClassifiers>
    <_>
      <internalNodes>
        0 -1 236830 5.6811515241861343e-03</internalNodes>
      <leafValues>
        -1.5631131827831268e-01 3.7466308474540710e-01</leafValues></_>
    <_>
      <internalNodes>
        0 -1 296125 -3.6218871828168631e-03</internalNodes>
      <leafValues>
        4.4128957390785217e-01 -1.1046372354030609e-01</leafValues></_>
    <_>
      <internalNodes>
        0 -1 140986 -5.8022610843181610e-02</internalNodes>
      <leafValues>
        7.2999410331249237e-02 -6.1564761400222778e-01</leafValues></_>
    <_>
      <internalNodes>
        0 -1 181753 -2.1643075160682201e-03</internalNodes>
      <leafValues>
        4.4943460822105408e-01 -6.2735483050346375e-02</leafValues></_>
    <_>
      <internalNodes>
        0 -1 251818 1.6294039087370038e-03</internalNodes>
      <leafValues>
        -1.4502006769180298e-01 2.5119268894195557e-01</leafValues></_>
    <_>
      <internalNodes>
        0 -1 164617 -5.8247920125722885e-02</internalNodes>
      <leafValues>
        -7.6071095466613770e-01 4.3922048062086105e-02</leafValues></_>
    <_>
      <internalNodes>
        0 -1 6558 -2.3751189000904560e-03</internalNodes>
      <leafValues>
        2.0433041453361511e-01 -1.6856728494167328e-01</leafValues></_>
    <_>
      <internalNodes>
        0 -1 27458 4.1865065693855286e-02</internalNodes>
      <leafValues>
        -7.8673705458641052e-02 3.8569152355194092e-01</leafValues></_>
    <_>
      <internalNodes>
        0 -1 52099 -7.4925772845745087e-02</internalNodes>
      <leafValues>
        1.9358454644680023e-01 -2.1006025373935699e-01</leafValues></_>
    <_>
      <internalNodes>
        0 -1 141556 -2.6595860254019499e-03</internalNodes>
      <leafValues>
        3.6536413431167603e-01 -1.3231281936168671e-01</leafValues></_>
    <_>
      <internalNodes>
        0 -1 380493 1.5229941345751286e-02</internalNodes>
      <leafValues>
        -9.7888097167015076e-02 3.2002916932106018e-01</leafValues></_>
    <_>
      <internalNodes>
        0 -1 212108 1.2107942253351212e-02</internalNodes>
      <leafValues>
        -6.1771556735038757e-02 5.6206786632537842e-01</leafValues></_>
    <_>
      <internalNodes>
        0 -1 319990 1.2474060058593750e-03</internalNodes>
      <leafValues>
        4.9231313169002533e-02 -6.1115157604217529e-01</leafValues></_>
    <_>
      <internalNodes>
        0 -1 380306 -1.2332964688539505e-03</internalNodes>
      <leafValues>
        3.9465361833572388e-01 -7.9671069979667664e-02</leafValues></_>
    <_>
      <internalNodes>
        0 -1 199100 6.6436477936804295e-04</internalNodes>
      <leafValues>
        -1.2005168944597244e-01 2.6290515065193176e-01</leafValues></_>
    <_>
      <internalNodes>
        0 -1 320455 6.4824372529983521e-03</internalNodes>
      <leafValues>
        7.4180826544761658e-02 -4.3908908963203430e-01</leafValues></_>
    <_>
      <internalNodes>
        0 -1 282288 -2.0551288034766912e-03</internalNodes>
      <leafValues>
        2.5210657715797424e-01 -1.2168275564908981e-01</leafValues></_>
    <_>
      <internalNodes>
        0 -1 163748 -5.1530618220567703e-03</internalNodes>
      <leafValues>
        -5.0027889013290405e-01 5.8469645678997040e-02</leafValues></_>
    <_>
      <internalNodes>
        0 -1 75484 -2.6967166922986507e-03</internalNodes>
      <leafValues>
        3.1929525732994080e-01 -8.9659310877323151e-02</leafValues></_>
    <_>
      <internalNodes>
        0 -1 6 7.6856528175994754e-04</internalNodes>
      <leafValues>
        9.0616039931774139e-02 -3.5558000206947327e-01</leafValues></_>
    <_>
      <internalNodes>
        0 -1 363237 -1.9258005544543266e-02</internalNodes>
      <leafValues>
        5.1819711923599243e-01 -5.8486342430114746e-02</leafValues></_>
    <_>
      <internalNodes>
        0 -1 281530 -1.3690075837075710e-02</internalNodes>
      <leafValues>
        -2.8954961895942688e-01 1.0578829050064087e-01</leafValues></_>
    <_>
      <internalNodes>
        0 -1 157821 2.6304507628083229e-03</internalNodes>
      <leafValues>
        -1.0433577746152878e-01 3.0564519762992859e-01</leafValues></_>
    <_>
      <internalNodes>
        0 -1 234162 5.8128209784626961e-03</internalNodes>
      <leafValues>
        -7.6246172189712524e-02 3.5941040515899658e-01</leafValues></_>
    <_>
      <internalNodes>
        0 -1 25802 5.6983679533004761e-03</internalNodes>
      <leafValues>
        -1.4322325587272644e-01 2.1298231184482574e-01</leafValues></_>
    <_>
      <internalNodes>
        0 -1 234238 -4.4326309580355883e-04</internalNodes>
      <leafValues>
        1.6303983330726624e-01 -1.7836980521678925e-01</leafValues></_>
    <_>
      <internalNodes>
        0 -1 307896 -3.7246575811877847e-04</internalNodes>
      <leafValues>
        2.1469619870185852e-01 -1.3870553672313690e-01</leafValues></_>
    <_>
      <internalNodes>
        0 -1 388642 4.1664261370897293e-03</internalNodes>
      <leafValues>
        -1.3333897292613983e-01 2.0944166183471680e-01</leafValues></_>
    <_>
      <internalNodes>
        0 -1 162769 2.6962622068822384e-03</internalNodes>
      <leafValues>
        -7.1280106902122498e-02 4.1413500905036926e-01</leafValues></_>
    <_>
      <internalNodes>
        0 -1 267610 1.4416049234569073e-03</internalNodes>
      <leafValues>
        7.8351505100727081e-02 -4.4032552838325500e-01</leafValues></_>
    <_>
      <internalNodes>
        0 -1 82195 2.4062101729214191e-03</internalNodes>
      <leafValues>
        -1.3758341968059540e-01 2.1615989506244659e-01</leafValues></_>
    <_>
      <internalNodes>
        0 -1 392987 1.6868577804416418e-03</internalNodes>
      <leafValues>
        -1.5986987948417664e-01 1.8657849729061127e-01</leafValues></_>
    <_>
      <internalNodes>
        0 -1 393076 -9.8879951983690262e-03</internalNodes>
      <leafValues>
        6.9193029403686523e-01 -4.4102258980274200e-02</leafValues></_>
    <_>
      <internalNodes>
        0 -1 49319 -6.2174757476896048e-04</internalNodes>
      <leafValues>
        3.6426708102226257e-02 -8.8617533445358276e-01</leafValues></_>
    <_>
      <internalNodes>
        0 -1 235547 2.9863931704312563e-03</internalNodes>
      <leafValues>
        -1.1060001701116562e-01 2.5027781724929810e-01</leafValues></_>
    <_>
      <internalNodes>
        0 -1 177821 -5.4754566401243210e-02</internalNodes>
      <leafValues>
        -1.4004714787006378e-01 1.8127873539924622e-01</leafValues></_>
    <_>
      <internalNodes>
        0 -1 353940 -4.2406357824802399e-02</internalNodes>
      <leafValues>
        3.3084663748741150e-01 -8.9657410979270935e-02</leafValues></_>
    <_>
      <internalNodes>
        0 -1 295874 -9.9678158760070801e-02</internalNodes>
      <leafValues>
        6.2147457152605057e-02 -5.2737903594970703e-01</leafValues></_></weakClassifiers></stage7>
</opencv_storage>
