<?xml version="1.0"?>
<opencv_storage>
<stage4>
  <maxWeakCount>38</maxWeakCount>
  <stageThreshold>-9.9902349710464478e-01</stageThreshold>
  <weakClassifiers>
    <_>
      <internalNodes>
        0 -1 5029 -4.9921260215342045e-03</internalNodes>
      <leafValues>
        3.4117648005485535e-01 -1.9712230563163757e-01</leafValues></_>
    <_>
      <internalNodes>
        0 -1 142715 8.0670267343521118e-03</internalNodes>
      <leafValues>
        -1.0347974300384521e-01 6.3293719291687012e-01</leafValues></_>
    <_>
      <internalNodes>
        0 -1 388114 2.0655460655689240e-02</internalNodes>
      <leafValues>
        -1.1159169673919678e-01 3.8768595457077026e-01</leafValues></_>
    <_>
      <internalNodes>
        0 -1 10961 4.5582413673400879e-02</internalNodes>
      <leafValues>
        -7.1969896554946899e-02 5.7587236166000366e-01</leafValues></_>
    <_>
      <internalNodes>
        0 -1 46144 -8.7104532867670059e-03</internalNodes>
      <leafValues>
        2.4624601006507874e-01 -1.5443426370620728e-01</leafValues></_>
    <_>
      <internalNodes>
        0 -1 310165 -3.8682296872138977e-02</internalNodes>
      <leafValues>
        3.2796850800514221e-01 -1.2885774672031403e-01</leafValues></_>
    <_>
      <internalNodes>
        0 -1 27450 -4.8622037284076214e-03</internalNodes>
      <leafValues>
        4.2428365349769592e-01 -7.8195914626121521e-02</leafValues></_>
    <_>
      <internalNodes>
        0 -1 193380 -4.7618031501770020e-02</internalNodes>
      <leafValues>
        6.7561304569244385e-01 -5.4981861263513565e-02</leafValues></_>
    <_>
      <internalNodes>
        0 -1 4999 3.7346945609897375e-03</internalNodes>
      <leafValues>
        -7.8008584678173065e-02 4.3286898732185364e-01</leafValues></_>
    <_>
      <internalNodes>
        0 -1 20068 -1.7790044844150543e-01</internalNodes>
      <leafValues>
        -3.2992047071456909e-01 1.2615194916725159e-01</leafValues></_>
    <_>
      <internalNodes>
        0 -1 1 -3.6447239108383656e-04</internalNodes>
      <leafValues>
        -4.4727322459220886e-01 7.5703218579292297e-02</leafValues></_>
    <_>
      <internalNodes>
        0 -1 94879 -1.9956743344664574e-02</internalNodes>
      <leafValues>
        4.3581295013427734e-01 -7.2442770004272461e-02</leafValues></_>
    <_>
      <internalNodes>
        0 -1 249072 2.0109226461499929e-03</internalNodes>
      <leafValues>
        -1.3735873997211456e-01 2.7451395988464355e-01</leafValues></_>
    <_>
      <internalNodes>
        0 -1 182910 -6.7251935601234436e-02</internalNodes>
      <leafValues>
        3.2184106111526489e-01 -9.6613772213459015e-02</leafValues></_>
    <_>
      <internalNodes>
        0 -1 51864 1.9512880593538284e-02</internalNodes>
      <leafValues>
        -1.2021353095769882e-01 3.8101318478584290e-01</leafValues></_>
    <_>
      <internalNodes>
        0 -1 1295 -6.1703633517026901e-02</internalNodes>
      <leafValues>
        -5.6011527776718140e-01 9.9553436040878296e-02</leafValues></_>
    <_>
      <internalNodes>
        0 -1 384239 -1.4324230141937733e-03</internalNodes>
      <leafValues>
        1.7612029612064362e-01 -1.8822449445724487e-01</leafValues></_>
    <_>
      <internalNodes>
        0 -1 394722 -5.5034947581589222e-04</internalNodes>
      <leafValues>
        -5.4108059406280518e-01 7.5553469359874725e-02</leafValues></_>
    <_>
      <internalNodes>
        0 -1 140823 -1.1135395616292953e-02</internalNodes>
      <leafValues>
        2.2568017244338989e-01 -1.4726968109607697e-01</leafValues></_>
    <_>
      <internalNodes>
        0 -1 340737 -1.8886832520365715e-02</internalNodes>
      <leafValues>
        4.6273419260978699e-01 -6.7798092961311340e-02</leafValues></_>
    <_>
      <internalNodes>
        0 -1 330441 1.2435229495167732e-02</internalNodes>
      <leafValues>
        -1.2240984290838242e-01 2.7650988101959229e-01</leafValues></_>
    <_>
      <internalNodes>
        0 -1 314253 -1.6222163103520870e-03</internalNodes>
      <leafValues>
        2.2258055210113525e-01 -1.5316893160343170e-01</leafValues></_>
    <_>
      <internalNodes>
        0 -1 221744 -3.0938824638724327e-03</internalNodes>
      <leafValues>
        2.0658944547176361e-01 -1.5827873349189758e-01</leafValues></_>
    <_>
      <internalNodes>
        0 -1 392925 1.7089086759369820e-04</internalNodes>
      <leafValues>
        1.1268165707588196e-01 -3.0076286196708679e-01</leafValues></_>
    <_>
      <internalNodes>
        0 -1 218014 1.9466581288725138e-03</internalNodes>
      <leafValues>
        -9.8508656024932861e-02 3.5771259665489197e-01</leafValues></_>
    <_>
      <internalNodes>
        0 -1 121944 7.1287490427494049e-03</internalNodes>
      <leafValues>
        -8.2469932734966278e-02 4.1697236895561218e-01</leafValues></_>
    <_>
      <internalNodes>
        0 -1 229768 8.6848363280296326e-03</internalNodes>
      <leafValues>
        -5.5812917649745941e-02 5.1629114151000977e-01</leafValues></_>
    <_>
      <internalNodes>
        0 -1 27296 -8.8827684521675110e-02</internalNodes>
      <leafValues>
        -5.6018841266632080e-01 6.3704587519168854e-02</leafValues></_>
    <_>
      <internalNodes>
        0 -1 16385 -8.9092431589961052e-03</internalNodes>
      <leafValues>
        -7.0568370819091797e-01 4.0392238646745682e-02</leafValues></_>
    <_>
      <internalNodes>
        0 -1 243861 8.9172139763832092e-02</internalNodes>
      <leafValues>
        4.4719405472278595e-02 -6.2372481822967529e-01</leafValues></_>
    <_>
      <internalNodes>
        0 -1 57068 1.4911591075360775e-02</internalNodes>
      <leafValues>
        -1.3332571089267731e-01 2.4711453914642334e-01</leafValues></_>
    <_>
      <internalNodes>
        0 -1 16726 -1.2639001011848450e-02</internalNodes>
      <leafValues>
        -7.5404804944992065e-01 4.2756121605634689e-02</leafValues></_>
    <_>
      <internalNodes>
        0 -1 15290 -2.2081659734249115e-01</internalNodes>
      <leafValues>
        -7.5478410720825195e-01 3.3307239413261414e-02</leafValues></_>
    <_>
      <internalNodes>
        0 -1 271107 5.9933244483545423e-04</internalNodes>
      <leafValues>
        9.5001526176929474e-02 -3.0089449882507324e-01</leafValues></_>
    <_>
      <internalNodes>
        0 -1 207863 -1.3175982981920242e-02</internalNodes>
      <leafValues>
        2.3079124093055725e-01 -1.3291323184967041e-01</leafValues></_>
    <_>
      <internalNodes>
        0 -1 183204 2.9794033616781235e-03</internalNodes>
      <leafValues>
        -1.2557689845561981e-01 2.4806331098079681e-01</leafValues></_>
    <_>
      <internalNodes>
        0 -1 59380 2.5948067195713520e-03</internalNodes>
      <leafValues>
        -6.9373652338981628e-02 4.1128170490264893e-01</leafValues></_>
    <_>
      <internalNodes>
        0 -1 365172 -1.7652274982538074e-04</internalNodes>
      <leafValues>
        2.0799209177494049e-01 -1.5021462738513947e-01</leafValues></_></weakClassifiers></stage4>
</opencv_storage>
