<?xml version="1.0"?>
<opencv_storage>
<stage9>
  <maxWeakCount>43</maxWeakCount>
  <stageThreshold>-1.1539407968521118e+00</stageThreshold>
  <weakClassifiers>
    <_>
      <internalNodes>
        0 -1 225584 -1.0385638102889061e-02</internalNodes>
      <leafValues>
        3.1428572535514832e-01 -4.2385321855545044e-01</leafValues></_>
    <_>
      <internalNodes>
        0 -1 367136 3.1414688564836979e-03</internalNodes>
      <leafValues>
        -1.1673977971076965e-01 3.4994757175445557e-01</leafValues></_>
    <_>
      <internalNodes>
        0 -1 50784 -2.4606892839074135e-03</internalNodes>
      <leafValues>
        3.5331794619560242e-01 -8.9804157614707947e-02</leafValues></_>
    <_>
      <internalNodes>
        0 -1 83758 -1.2490114197134972e-02</internalNodes>
      <leafValues>
        -4.3272379785776138e-02 5.7333385944366455e-01</leafValues></_>
    <_>
      <internalNodes>
        0 -1 282564 -6.0624384786933661e-04</internalNodes>
      <leafValues>
        -4.3015450239181519e-01 6.5854340791702271e-02</leafValues></_>
    <_>
      <internalNodes>
        0 -1 99604 2.2324817255139351e-03</internalNodes>
      <leafValues>
        -4.2383771389722824e-02 3.6738017201423645e-01</leafValues></_>
    <_>
      <internalNodes>
        0 -1 393561 -7.1082497015595436e-03</internalNodes>
      <leafValues>
        3.8181781768798828e-01 -7.2587624192237854e-02</leafValues></_>
    <_>
      <internalNodes>
        0 -1 393163 2.5295563973486423e-03</internalNodes>
      <leafValues>
        -1.2699334323406219e-01 2.5223577022552490e-01</leafValues></_>
    <_>
      <internalNodes>
        0 -1 388608 -2.3959905956871808e-04</internalNodes>
      <leafValues>
        1.9646547734737396e-01 -1.4695733785629272e-01</leafValues></_>
    <_>
      <internalNodes>
        0 -1 19036 -1.0468822717666626e-01</internalNodes>
      <leafValues>
        3.3687266707420349e-01 -9.5993898808956146e-02</leafValues></_>
    <_>
      <internalNodes>
        0 -1 32504 4.2157806456089020e-02</internalNodes>
      <leafValues>
        -7.1246430277824402e-02 4.2152693867683411e-01</leafValues></_>
    <_>
      <internalNodes>
        0 -1 218652 -1.3873312855139375e-03</internalNodes>
      <leafValues>
        -6.7702066898345947e-01 4.3973062187433243e-02</leafValues></_>
    <_>
      <internalNodes>
        0 -1 281645 -7.2408336563967168e-05</internalNodes>
      <leafValues>
        -2.6682728528976440e-01 1.0188496857881546e-01</leafValues></_>
    <_>
      <internalNodes>
        0 -1 198345 -3.0567205976694822e-03</internalNodes>
      <leafValues>
        2.5343847274780273e-01 -9.2382609844207764e-02</leafValues></_>
    <_>
      <internalNodes>
        0 -1 178286 -1.3621647376567125e-03</internalNodes>
      <leafValues>
        2.6303538680076599e-01 -9.2488877475261688e-02</leafValues></_>
    <_>
      <internalNodes>
        0 -1 21156 -7.4073567520827055e-04</internalNodes>
      <leafValues>
        -6.4636808633804321e-01 3.3853691071271896e-02</leafValues></_>
    <_>
      <internalNodes>
        0 -1 247674 -1.7872881144285202e-02</internalNodes>
      <leafValues>
        -2.9071620106697083e-01 8.5450418293476105e-02</leafValues></_>
    <_>
      <internalNodes>
        0 -1 115863 7.6731041073799133e-02</internalNodes>
      <leafValues>
        5.0514381378889084e-02 -4.8606619238853455e-01</leafValues></_>
    <_>
      <internalNodes>
        0 -1 21159 -9.0918986825272441e-04</internalNodes>
      <leafValues>
        -6.7741364240646362e-01 3.2196376472711563e-02</leafValues></_>
    <_>
      <internalNodes>
        0 -1 38616 1.3512922450900078e-03</internalNodes>
      <leafValues>
        -9.1379180550575256e-02 2.8776830434799194e-01</leafValues></_>
    <_>
      <internalNodes>
        0 -1 13358 -2.2878600284457207e-03</internalNodes>
      <leafValues>
        2.5678005814552307e-01 -1.0845163464546204e-01</leafValues></_>
    <_>
      <internalNodes>
        0 -1 48902 -1.0511447908356786e-03</internalNodes>
      <leafValues>
        -8.3028495311737061e-01 2.7784230187535286e-02</leafValues></_>
    <_>
      <internalNodes>
        0 -1 347524 -4.5950906351208687e-03</internalNodes>
      <leafValues>
        1.9577652215957642e-01 -1.2458077073097229e-01</leafValues></_>
    <_>
      <internalNodes>
        0 -1 281645 1.0374592966400087e-04</internalNodes>
      <leafValues>
        8.9029736816883087e-02 -2.8522133827209473e-01</leafValues></_>
    <_>
      <internalNodes>
        0 -1 339257 8.7079667719081044e-04</internalNodes>
      <leafValues>
        -6.1535485088825226e-02 4.4230586290359497e-01</leafValues></_>
    <_>
      <internalNodes>
        0 -1 216657 -6.0346610844135284e-03</internalNodes>
      <leafValues>
        4.7297635674476624e-01 -4.8806861042976379e-02</leafValues></_>
    <_>
      <internalNodes>
        0 -1 21702 -2.3364555090665817e-02</internalNodes>
      <leafValues>
        -3.2084393501281738e-01 7.4978023767471313e-02</leafValues></_>
    <_>
      <internalNodes>
        0 -1 354953 -9.8200393840670586e-03</internalNodes>
      <leafValues>
        -3.6201781034469604e-01 6.1906211078166962e-02</leafValues></_>
    <_>
      <internalNodes>
        0 -1 370998 -4.8636617138981819e-03</internalNodes>
      <leafValues>
        2.9872402548789978e-01 -8.1625469028949738e-02</leafValues></_>
    <_>
      <internalNodes>
        0 -1 371618 6.2594888731837273e-04</internalNodes>
      <leafValues>
        -9.3652851879596710e-02 2.5093552470207214e-01</leafValues></_>
    <_>
      <internalNodes>
        0 -1 39925 1.1559581384062767e-02</internalNodes>
      <leafValues>
        3.1635455787181854e-02 -6.9684159755706787e-01</leafValues></_>
    <_>
      <internalNodes>
        0 -1 375832 1.3606835156679153e-02</internalNodes>
      <leafValues>
        -7.8342065215110779e-02 2.9909235239028931e-01</leafValues></_>
    <_>
      <internalNodes>
        0 -1 280097 3.6777416244149208e-03</internalNodes>
      <leafValues>
        -6.9061815738677979e-02 3.2332026958465576e-01</leafValues></_>
    <_>
      <internalNodes>
        0 -1 394724 -5.6290440261363983e-04</internalNodes>
      <leafValues>
        -4.9921411275863647e-01 4.9603328108787537e-02</leafValues></_>
    <_>
      <internalNodes>
        0 -1 287117 -6.7310422658920288e-02</internalNodes>
      <leafValues>
        4.2135497927665710e-01 -5.6421369314193726e-02</leafValues></_>
    <_>
      <internalNodes>
        0 -1 5023 -6.8932110443711281e-03</internalNodes>
      <leafValues>
        2.8971201181411743e-01 -8.2806758582592010e-02</leafValues></_>
    <_>
      <internalNodes>
        0 -1 29332 3.1866717617958784e-03</internalNodes>
      <leafValues>
        -1.0011512786149979e-01 2.4942468106746674e-01</leafValues></_>
    <_>
      <internalNodes>
        0 -1 320704 3.9080383430700749e-05</internalNodes>
      <leafValues>
        1.1346868425607681e-01 -2.2843497991561890e-01</leafValues></_>
    <_>
      <internalNodes>
        0 -1 384373 -1.2675031088292599e-02</internalNodes>
      <leafValues>
        -6.0934090614318848e-01 3.6385174840688705e-02</leafValues></_>
    <_>
      <internalNodes>
        0 -1 376476 -1.1633427813649178e-02</internalNodes>
      <leafValues>
        -7.1492224931716919e-02 3.5533109307289124e-01</leafValues></_>
    <_>
      <internalNodes>
        0 -1 358160 2.3522926494479179e-03</internalNodes>
      <leafValues>
        -1.2251100689172745e-01 2.2716523706912994e-01</leafValues></_>
    <_>
      <internalNodes>
        0 -1 162829 -6.3548699021339417e-02</internalNodes>
      <leafValues>
        2.8694916516542435e-02 -8.5211026668548584e-01</leafValues></_>
    <_>
      <internalNodes>
        0 -1 281066 -2.3462876561097801e-04</internalNodes>
      <leafValues>
        2.3051917552947998e-01 -1.0593703389167786e-01</leafValues></_></weakClassifiers></stage9>
</opencv_storage>
